<?xml version="1.0"?>
<opencv_storage>
<cascade>
  <stageType>BOOST</stageType>
  <featureType>LBP</featureType>
  <height>100</height>
  <width>100</width>
  <stageParams>
    <boostType>GAB</boostType>
    <minHitRate>9.9500000476837158e-01</minHitRate>
    <maxFalseAlarm>5.0000000000000000e-01</maxFalseAlarm>
    <weightTrimRate>9.4999999999999996e-01</weightTrimRate>
    <maxDepth>1</maxDepth>
    <maxWeakCount>100</maxWeakCount></stageParams>
  <featureParams>
    <maxCatCount>256</maxCatCount>
    <featSize>1</featSize></featureParams>
  <stageNum>3</stageNum>
  <stages>
    <!-- stage 0 -->
    <_>
      <maxWeakCount>2</maxWeakCount>
      <stageThreshold>-1.6597938537597656e-01</stageThreshold>
      <weakClassifiers>
        <_>
          <internalNodes>
            0 -1 1 -1 -6433321 -49154561 -2630153 -69207553 -6308357
            -6555137 -656397</internalNodes>
          <leafValues>
            -9.7786211967468262e-01 8.4434968233108521e-01</leafValues></_>
        <_>
          <internalNodes>
            0 -1 5 -2097153 -1145318401 -677249537 -268443649 1505490943
            -7521 -33554433 -3073</internalNodes>
          <leafValues>
            -9.4181638956069946e-01 8.1188273429870605e-01</leafValues></_></weakClassifiers></_>
    <!-- stage 1 -->
    <_>
      <maxWeakCount>3</maxWeakCount>
      <stageThreshold>-9.3728059530258179e-01</stageThreshold>
      <weakClassifiers>
        <_>
          <internalNodes>
            0 -1 3 -201231369 -1727328240 16974317 -1794535167 13175171
            -100626296 67631 -568685837</internalNodes>
          <leafValues>
            -9.4824963808059692e-01 1.</leafValues></_>
        <_>
          <internalNodes>
            0 -1 2 -721156807 -526123007 50495491 1711357961 151064971
            -1694433280 33653259 -14176761</internalNodes>
          <leafValues>
            -9.1414773464202881e-01 1.</leafValues></_>
        <_>
          <internalNodes>
            0 -1 4 -1051148111 1478557697 553714055 943915147
            -2113338699 1074462723 590475 -607679761</internalNodes>
          <leafValues>
            -9.4462484121322632e-01 9.2511677742004395e-01</leafValues></_></weakClassifiers></_>
    <!-- stage 2 -->
    <_>
      <maxWeakCount>1</maxWeakCount>
      <stageThreshold>1.</stageThreshold>
      <weakClassifiers>
        <_>
          <internalNodes>
            0 -1 0 16 0 0 0 0 0 128 167772160</internalNodes>
          <leafValues>
            -1. 1.</leafValues></_></weakClassifiers></_></stages>
  <features>
    <_>
      <rect>
        0 0 7 18</rect></_>
    <_>
      <rect>
        0 60 19 7</rect></_>
    <_>
      <rect>
        36 32 21 19</rect></_>
    <_>
      <rect>
        37 39 9 6</rect></_>
    <_>
      <rect>
        43 41 6 12</rect></_>
    <_>
      <rect>
        52 79 13 5</rect></_></features></cascade>
</opencv_storage>
